<?xml version="1.0" encoding="UTF-8"?>
<!-- This network was created in GeNIe Academic, which can be used for academic teaching and research purposes only -->
<smile version="1.0" id="Network4" numsamples="1000" discsamples="10000">
	<nodes>
		<cpt id="Age">
			<state id="child" />
			<state id="adult" />
			<state id="elderly" />
			<probabilities>0.3333333333333333 0.3333333333333333 0.3333333333333334</probabilities>
		</cpt>
		<cpt id="Heart_failiure">
			<state id="yes" />
			<state id="no" />
			<parents>Age</parents>
			<probabilities>0.05 0.95 0.5 0.5 0.8 0.2</probabilities>
			<property id="DSL_OUTCOME_ORDER">-1</property>
		</cpt>
		<cpt id="dyspnea">
			<state id="yes" />
			<state id="no" />
			<parents>Heart_failiure</parents>
			<probabilities>0.95 0.05000000000000004 0.1 0.9</probabilities>
		</cpt>
		<cpt id="tachycpnea">
			<state id="yes" />
			<state id="no" />
			<parents>dyspnea</parents>
			<probabilities>0.98 0.02000000000000002 0.2 0.8</probabilities>
		</cpt>
		<cpt id="tachicardia">
			<state id="yes" />
			<state id="no" />
			<parents>dyspnea</parents>
			<probabilities>0.95 0.05000000000000004 0.1 0.9</probabilities>
		</cpt>
		<cpt id="PulmonaryCrepitations">
			<state id="yes" />
			<state id="no" />
			<parents>Heart_failiure</parents>
			<probabilities>0.7 0.3 0.15 0.85</probabilities>
		</cpt>
		<decision id="treatment">
			<state id="yes" />
			<state id="no" />
			<parents>Age tachycpnea tachicardia PulmonaryCrepitations</parents>
			<property id="DSL_OUTCOME_ORDER">-1</property>
		</decision>
		<cpt id="intermdiate_result">
			<state id="bad" />
			<state id="good" />
			<parents>treatment Heart_failiure Age</parents>
			<probabilities>0.6 0.4 0.45 0.55 0.65 0.35 0.1 0.9 0.15 0.85 0.18 0.8200000000000001 0.6 0.4 0.8 0.2 0.95 0.05000000000000004 0.1 0.9 0.15 0.85 0.18 0.8200000000000001</probabilities>
			<property id="DSL_OUTCOME_ORDER">-1</property>
		</cpt>
		<cpt id="Late_complications">
			<state id="yes" />
			<state id="no" />
			<parents>intermdiate_result treatment</parents>
			<probabilities>0.5 0.5 0.95 0.05000000000000004 0.01 0.99 0.1 0.9</probabilities>
		</cpt>
		<utility id="U">
			<parents>treatment intermdiate_result Late_complications</parents>
			<utilities>0 0.6 0.4 0.8 0.3 0.7 0.5 1</utilities>
		</utility>
	</nodes>
	<extensions>
		<genie version="1.0" app="GeNIe 4.1.3402.0 ACADEMIC" name="Treatment">
			<node id="Age">
				<name>Age</name>
				<interior color="e5f6f7" />
				<outline color="000080" />
				<font color="000000" name="Arial" size="8" />
				<position>599 419 640 444</position>
			</node>
			<node id="Heart_failiure">
				<name>Heart_failiure</name>
				<interior color="e5f6f7" />
				<outline color="000080" />
				<font color="000000" name="Arial" size="8" />
				<position>386 329 462 376</position>
			</node>
			<node id="dyspnea">
				<name>dyspnea</name>
				<interior color="e5f6f7" />
				<outline color="000080" />
				<font color="000000" name="Arial" size="8" />
				<position>387 197 480 221</position>
			</node>
			<node id="tachycpnea">
				<name>tachycpnea</name>
				<interior color="e5f6f7" />
				<outline color="000080" />
				<font color="000000" name="Arial" size="8" />
				<position>385 102 451 143</position>
			</node>
			<node id="tachicardia">
				<name>tachiycardia</name>
				<interior color="e5f6f7" />
				<outline color="000080" />
				<font color="000000" name="Arial" size="8" />
				<position>543 203 609 244</position>
			</node>
			<node id="PulmonaryCrepitations">
				<name>pulmonary crepitations</name>
				<interior color="e5f6f7" />
				<outline color="000080" />
				<font color="000000" name="Arial" size="8" />
				<position>532 278 610 326</position>
			</node>
			<textbox>
				<caption>aumento velocita&apos; respirazione</caption>
				<font color="000000" name="Arial" size="8" />
				<position>333 86 479 100</position>
			</textbox>
			<textbox>
				<caption>aumento velocita&apos; cardiaca</caption>
				<font color="000000" name="Arial" size="8" />
				<position>513 187 641 201</position>
			</textbox>
			<textbox>
				<caption>difficolta&apos; a respirare</caption>
				<font color="000000" name="Arial" size="8" />
				<position>285 198 384 212</position>
			</textbox>
			<node id="treatment">
				<name>treatment</name>
				<interior color="e5f6f7" />
				<outline color="000080" />
				<font color="000000" name="Arial" size="8" />
				<position>713 177 770 203</position>
			</node>
			<node id="intermdiate_result">
				<name>intermdiate result</name>
				<interior color="e5f6f7" />
				<outline color="000080" />
				<font color="000000" name="Arial" size="8" />
				<position>619 643 712 701</position>
			</node>
			<node id="Late_complications">
				<name>Late complications</name>
				<interior color="e5f6f7" />
				<outline color="000080" />
				<font color="000000" name="Arial" size="8" />
				<position>863 432 962 493</position>
			</node>
			<node id="U">
				<name>U</name>
				<interior color="e5f6f7" />
				<outline color="000080" />
				<font color="000000" name="Arial" size="8" />
				<position>775 429 802 461</position>
			</node>
			<textbox>
				<caption>Utilita&apos; graduata considerando LateComplications piu&apos; importante di IntermideiaResult piu&apos; importante di costo trattamento</caption>
				<font color="000000" name="Arial" size="8" />
				<position>85 74 279 130</position>
			</textbox>
		</genie>
	</extensions>
</smile>
